#pragma once
#include <ap_fixed.h>

typedef ap_fixed<3, 0> type_t;

type_t weight[14][3][5][5] = {
	{
		{
			{0.2102280527, -0.2680586870, -0.4629448259, -0.2086875490, 0.0880533670},

			{-0.0554965563, -0.2363282873, -0.1497862705, 0.3574972788, 0.2340273770},

			{-0.0636300297, 0.2741102808, 0.1897353674, 0.3326519383, -0.2235578045},

			{0.4665790585, -0.0299951008, 0.3264569726, -0.2201999141, -0.1816376499},

			{-0.1509512330, 0.3397616652, 0.0372559750, 0.2948114609, -0.0706645040}
		},

		{
			{0.2017277993, 0.4845553005, 0.3471548054, 0.4456587700, 0.3251032096},

			{0.3365422435, 0.1940679045, 0.1537234252, 0.4214087918, -0.3394299123},

			{-0.4897514047, 0.2348861395, 0.3086816323, -0.2426019403, 0.3467040768},

			{0.2063898076, 0.4151914765, 0.2458790617, -0.3717768527, -0.3989156408},

			{-0.0293758437, -0.4230177682, -0.3064078236, 0.4481683307, 0.2813111316}
		},

		{
			{0.3251616995, 0.3226585248, -0.4370903865, -0.2947060672, -0.0774289521},

			{0.2739436100, -0.1115788414, -0.1392496217, 0.4166806721, -0.1814180042},

			{0.3922036751, 0.4339335693, -0.2017842756, -0.1500906917, 0.2923685886},

			{-0.0711749044, 0.2697428678, 0.3358456863, -0.3034959362, 0.0873139178},

			{0.2282375010, 0.1213953311, -0.0647567893, -0.3180484543, -0.2431517975}
		}
	},

	{
		{
			{-0.1595716364, -0.0403333762, -0.1830871159, 0.3831673055, 0.4543398837},

			{-0.4273649651, 0.2553895186, -0.2233952757, -0.4822738463, 0.2225803592},

			{0.0862354415, 0.4356848960, 0.4802917367, 0.1643791040, -0.4749222902},

			{-0.1325498697, -0.4476366345, -0.4277207313, -0.2229117438, -0.3999254245},

			{-0.2463928928, -0.0473661468, 0.3458775306, -0.1792716412, 0.4589625551}
		},

		{
			{0.1541906818, 0.0884372498, -0.1055315127, -0.0668034707, 0.3500219514},

			{0.4303990171, -0.2000093258, 0.4789824072, 0.4810760346, -0.1573792139},

			{-0.2889367854, 0.1987330518, 0.2254771107, -0.1911283777, -0.0555447930},

			{0.1723067669, -0.0581476591, -0.2047035565, 0.2597148341, 0.0981812392},

			{-0.0026883036, 0.2859426975, -0.0396856082, -0.1122337585, 0.0086569394}
		},

		{
			{0.2908651780, 0.4616176201, -0.4123675528, 0.4322859813, 0.4712149422},

			{0.0083455497, 0.1790683114, -0.2568640605, -0.1487637132, 0.2995764886},

			{0.0803655687, -0.2350652408, 0.3862317588, 0.0664678804, -0.0965171309},

			{-0.3490911201, -0.0323970380, 0.4507207368, -0.3510795221, -0.0610980881},

			{-0.1138571862, -0.1868391367, 0.4894255424, 0.1570625109, 0.3219759307}
		}
	},

	{
		{
			{0.4439581542, 0.0900426960, -0.1856361162, -0.4045519431, -0.3051790637},

			{-0.2489823100, 0.4669592686, -0.1453534010, 0.4630179820, 0.0999933015},

			{-0.1050666564, -0.0234188704, -0.1745511317, 0.4039090455, -0.1381995050},

			{-0.4228438803, 0.1866330359, 0.4100090455, 0.4745205144, -0.1488166513},

			{-0.1954631203, -0.2468960264, 0.3891796279, 0.2067227755, 0.4774148699}
		},

		{
			{0.4884913546, 0.3990365276, -0.3334920294, -0.2349214737, 0.0572400933},

			{0.4301674406, 0.4223504427, 0.2813934795, -0.0596539323, 0.0753418459},

			{-0.3171856619, -0.0944124149, -0.2684123830, 0.1340838101, 0.3587480957},

			{0.2653091282, 0.1235683218, 0.1879576306, 0.4201744329, -0.4791540532},

			{0.1762240048, 0.0878247423, -0.3341582170, -0.0770042970, -0.2594892107}
		},

		{
			{-0.4091616750, 0.1897841680, 0.4544620008, -0.1119979364, 0.1322155315},

			{-0.3444472592, -0.0140967997, 0.3246443719, 0.2248415599, 0.2625438482},

			{-0.1522107640, -0.0799004005, -0.3674541833, -0.0816416315, -0.3836111734},

			{-0.2345914532, 0.4233523111, 0.3074573185, 0.2461907093, 0.4757481613},

			{-0.4272102884, -0.4299236373, 0.2077866924, -0.2920061174, -0.4362791333}
		}
	},

	{
		{
			{-0.1779586738, 0.4490309207, 0.2596229737, -0.3292919735, 0.0338294022},

			{0.4556830741, -0.1491283787, 0.0758699959, 0.1257025878, 0.0971787053},

			{-0.0843686436, -0.2584108255, 0.1530561502, 0.0170578010, 0.1762855333},

			{-0.0527520341, -0.1507905997, 0.1840253681, 0.1799438131, 0.3572391504},

			{0.3933833214, 0.0953633502, -0.3632574097, 0.3988132004, -0.4051132146}
		},

		{
			{-0.0176733454, 0.0241494398, -0.0376983652, -0.3551697835, -0.0647545553},

			{0.2093098015, 0.4243567368, 0.1905104991, 0.2576675804, -0.3210463044},

			{-0.3530184996, 0.3984724929, -0.0120609593, -0.1272715643, 0.1098776464},

			{0.4539633714, 0.1037639271, 0.0657229713, -0.1800207306, -0.0399176250},

			{0.3385128761, 0.4763947351, 0.3334324736, 0.1061039733, -0.1806793672}
		},

		{
			{0.4860617117, -0.1037756288, -0.2829658794, -0.3308276347, -0.0964603736},

			{0.0668746144, -0.1177083254, -0.2974009697, -0.2437334143, 0.0921616225},

			{0.0236961900, -0.1164981775, -0.0659702281, -0.2689641813, 0.2156073332},

			{0.4619090865, -0.2569641515, -0.4278450292, -0.3966287098, -0.1285376249},

			{0.2903875247, 0.2535950943, 0.3645409621, 0.1673064318, -0.0203736936}
		}
	},

	{
		{
			{-0.1890343170, -0.1881624454, 0.4876555597, -0.3401124791, -0.4612752816},

			{0.4270175751, 0.2250885269, -0.1663696132, 0.1726048083, -0.4778512543},

			{-0.2347520224, -0.2796475156, 0.4415437254, 0.1171768999, 0.0678284885},

			{0.2097013482, -0.3462145082, -0.1899087148, -0.0682138713, -0.1245361864},

			{0.2331444323, 0.1445604896, 0.3237666931, -0.2000254221, -0.4388932773}
		},

		{
			{0.3507377899, -0.0038699045, 0.2573862396, 0.4430596507, 0.1036665913},

			{-0.2776244085, 0.1569425951, -0.0952478003, 0.3685758907, 0.3593217595},

			{-0.4652657243, -0.1621449964, 0.0440744854, 0.4233226053, -0.3413419702},

			{0.0642651843, -0.4229750021, 0.0506102401, -0.0913006385, 0.1063441096},

			{-0.0248474616, 0.3400313250, -0.0278503456, 0.4050336302, 0.1341614645}
		},

		{
			{-0.0296425890, -0.1881756301, -0.0632542228, -0.4662316934, -0.2183518504},

			{-0.3536024929, 0.3081944365, -0.1440923044, -0.4211548429, -0.4012126115},

			{-0.2276201900, 0.3725210544, 0.2512198903, 0.3936050229, 0.0913148159},

			{-0.4950048445, 0.1678096200, 0.1909740968, -0.2254212183, 0.2404292882},

			{0.4795299698, 0.2676813943, 0.0950354068, 0.1926141636, -0.3681480694}
		}
	},

	{
		{
			{0.3808826578, -0.1681616220, 0.1892903093, 0.0411844084, 0.4778065693},

			{-0.2386607886, -0.0750335543, -0.4408641917, 0.1948766325, 0.4079605747},

			{0.0771355183, -0.3682703665, -0.1601235266, -0.0692620068, 0.0884825080},

			{0.4777515030, -0.1060940509, 0.0126891827, -0.1295959481, -0.2610120716},

			{0.2777210618, 0.4872735692, -0.1907703422, 0.1319750013, -0.0016106635}
		},

		{
			{0.0424357324, -0.3550335646, -0.3195717248, 0.2762055504, -0.4215479800},

			{-0.2928244328, 0.4881049239, -0.1114613376, 0.4866224643, -0.2528877497},

			{0.1278848002, -0.1699243361, -0.2807308828, 0.3481913175, 0.2502894386},

			{-0.0928858581, -0.1121567300, -0.4331473493, -0.0841436116, -0.0937733234},

			{0.2001300045, -0.3272520261, -0.3047155146, -0.1199873031, 0.0697129400}
		},

		{
			{-0.3938526166, 0.3867312523, -0.3986511330, 0.3260824417, 0.3730950358},

			{0.1781747239, -0.3415257994, -0.4211307387, 0.3415792589, 0.1446837584},

			{-0.4767105342, 0.3487407217, 0.1613736629, 0.4124445376, -0.4696734525},

			{0.0163264734, -0.2469537570, 0.4965658052, 0.2842804536, 0.4126870019},

			{-0.0239495972, -0.4745297992, 0.0513351536, 0.4519142064, 0.4859793474}
		}
	},

	{
		{
			{0.0842172208, 0.1125079167, -0.3636809847, -0.1781781887, -0.1676344936},

			{0.1836895067, -0.2708138124, -0.3817690037, -0.3113459167, 0.1068359467},

			{0.1855092806, -0.3812785851, 0.3198897364, -0.0425461748, -0.1398649154},

			{0.1581836705, 0.4803658783, 0.1845537712, -0.2134250990, -0.0784853730},

			{-0.0078354029, -0.1732911681, 0.3636927518, 0.0923344463, 0.3018172838}
		},

		{
			{-0.0109408854, -0.0732624473, 0.2172283515, -0.3282789249, 0.2094477185},

			{0.2482280457, -0.0495560985, 0.1347540835, -0.4402371338, 0.3324918460},

			{0.3207435581, -0.1002538661, 0.1917657962, 0.3096841391, 0.3287531248},

			{0.2205081306, 0.0386900965, -0.1519682556, -0.0235519608, 0.2123539843},

			{-0.0814707723, 0.1199076544, 0.2829729754, 0.4810226018, -0.3806001932}
		},

		{
			{-0.1007644671, -0.0021626481, -0.1970940517, 0.0056309679, 0.0450977877},

			{-0.4875896989, 0.4854043150, -0.0322337078, 0.1721109302, -0.1653483579},

			{-0.2455875060, -0.4030967693, -0.1532521705, 0.1957137721, -0.3406820211},

			{-0.0157049273, -0.1745010703, 0.3461008932, 0.1068193166, -0.0341186190},

			{-0.0403003920, 0.4407960720, 0.1155880945, -0.2585327844, -0.4795977374}
		}
	},

	{
		{
			{-0.0905024599, 0.4613575044, -0.4715788515, -0.2797781338, -0.0300317888},

			{0.0478630157, 0.2907684312, -0.3205089922, -0.3337347783, 0.4842649785},

			{-0.0903679412, -0.1812497007, 0.2002847193, -0.0540032251, -0.3803125414},

			{0.0618130978, 0.4007287240, 0.4889577275, -0.1807160676, 0.4534315646},

			{-0.2760449664, 0.1167914911, -0.2158766582, 0.2337026510, 0.2615624167}
		},

		{
			{0.3561441830, -0.0179424551, -0.3443325268, -0.4149621493, -0.3867447394},

			{0.3959407554, 0.2322003422, -0.1204788087, 0.1028809060, 0.2460820681},

			{0.4486001408, 0.2425018873, -0.1486937887, 0.3198009664, -0.0043132296},

			{0.4467389113, -0.2767983639, 0.4870257446, -0.3583643958, 0.4879376210},

			{0.0663313545, -0.4423298483, -0.2048663169, -0.1031716501, -0.0993909797}
		},

		{
			{0.4937160533, 0.2536511853, -0.0227654828, 0.3296465149, -0.1135526492},

			{0.1137985691, 0.0163260995, 0.4576687818, 0.0790647037, -0.4535274028},

			{0.2720810381, -0.4958057711, 0.1186143411, -0.3628653246, -0.4240463674},

			{-0.4819105691, 0.2372943002, 0.3252259172, -0.0052745723, 0.4588549969},

			{-0.1868239448, -0.2867277437, 0.4810039764, 0.1284090095, -0.1212796414}
		}
	},

	{
		{
			{0.4939708153, -0.0842108974, -0.0742995729, -0.1448972992, -0.3812491705},

			{0.1210700155, 0.3766300901, -0.1609146369, -0.0305682981, -0.1498760933},

			{0.2174613970, -0.2859331876, -0.4534196140, 0.2983182662, -0.3870985299},

			{-0.0762222323, -0.0515620672, -0.3437669477, -0.3600070390, -0.1493785338},

			{-0.2591704181, -0.0123628193, 0.3996083701, -0.2704016768, 0.2978432790}
		},

		{
			{-0.4803594923, 0.0656602696, -0.0536185095, -0.0695080715, 0.2240262315},

			{-0.2320911996, 0.1308553465, 0.0887580853, -0.1734630879, -0.3712038854},

			{-0.2161255834, -0.2727393364, -0.0067896795, 0.2154669480, -0.4315335256},

			{0.1967691244, 0.3415529943, -0.1948406267, 0.2184497886, -0.1474346946},

			{-0.4188975906, 0.1288945442, -0.4354216415, 0.4545794451, 0.3854927321}
		},

		{
			{0.2584491368, 0.2735648375, -0.3852071590, 0.2794746255, 0.4350857662},

			{0.1402011679, 0.3356495072, 0.3157770548, 0.4395337825, 0.2275220722},

			{0.0920466722, -0.4419071993, 0.0800598479, 0.4208208938, 0.3022187631},

			{-0.4165780788, -0.0228233484, -0.3100021793, -0.1923772018, 0.4886999365},

			{0.4468623450, -0.3613172937, -0.0743723068, -0.2982128141, -0.3076354531}
		}
	},

	{
		{
			{-0.0051400428, 0.0259766504, 0.4289275773, -0.2546395551, -0.4494790368},

			{0.4152957790, 0.3538963883, -0.0871847332, 0.0250905080, 0.4339790351},

			{-0.4409549512, 0.2904987412, 0.0544764040, 0.1373504354, -0.1034542254},

			{-0.0131561237, 0.0180340405, -0.1432838358, 0.1144596906, 0.0026028771},

			{-0.0726472032, -0.3074854513, -0.3645090405, -0.3804061563, -0.1667062496}
		},

		{
			{0.1019083597, -0.1969362345, -0.3023978487, -0.3331802056, 0.1041654961},

			{-0.2274267286, 0.0311309107, 0.2259025743, 0.3329096557, -0.3237909519},

			{-0.2633850618, -0.3649944814, -0.2605543937, 0.3339259114, 0.2924902917},

			{-0.3068137497, -0.4039254791, 0.1422992326, -0.2078517533, -0.4941684931},

			{0.2298127721, 0.2275589796, -0.2449569089, -0.2517218197, -0.3607349358}
		},

		{
			{0.1772115732, -0.3227528107, -0.1317588547, 0.2791687945, 0.1972628425},

			{0.1451514677, -0.1185760343, 0.0049178125, -0.3897879213, -0.3947438210},

			{0.0006638344, -0.3813602905, -0.3551669660, -0.4881183005, -0.4758886362},

			{-0.2107154548, 0.4455848688, -0.2505403700, -0.1929151571, 0.4060043544},

			{-0.0465133036, -0.4050677676, -0.3302408463, 0.2212003174, 0.4825564944}
		}
	},

	{
		{
			{-0.1771759665, 0.4701597235, 0.1182482876, -0.4991857029, 0.1286763476},

			{-0.2124385551, 0.0337679834, -0.1956954749, -0.0421276168, 0.3607383056},

			{-0.2456419239, -0.1126136957, 0.2576175068, 0.3380897191, 0.1636875232},

			{-0.1059858127, 0.3017244795, -0.4501381125, -0.4735057767, 0.4747063211},

			{0.0990449518, -0.2297493512, -0.1919119567, 0.1977772780, -0.2115017876}
		},

		{
			{-0.4673950335, -0.0048307189, 0.1924925795, -0.2847787151, -0.0467460119},

			{-0.3818583166, -0.1467806543, -0.2291270668, -0.0400999253, -0.3909795345},

			{0.3562089454, -0.4068161487, -0.0966848407, 0.3001429169, 0.3564194574},

			{0.1820898971, 0.3769781072, 0.1691049991, 0.0819664668, -0.4302363685},

			{-0.4521341611, 0.1281332207, 0.4414475899, 0.1510908542, -0.4421015300}
		},

		{
			{-0.4683333802, -0.1484788170, -0.2485502265, -0.3811953821, 0.0069310742},

			{0.4518762461, 0.3038197042, -0.1726046052, -0.2388881509, -0.0751190077},

			{0.0410120695, 0.1854288554, -0.3189772419, 0.0931273415, -0.4355067529},

			{-0.2511941266, 0.4678878387, 0.4512208581, 0.1232470909, -0.0117329643},

			{-0.3369304842, -0.4663135532, 0.1784656871, 0.3473471068, -0.1619181135}
		}
	},

	{
		{
			{0.4857421368, -0.2294793664, -0.0637774539, -0.3865903391, -0.0253804122},

			{-0.3604179390, -0.4182753395, -0.0389738733, 0.3374390757, -0.4756791628},

			{0.4784275632, -0.3330870466, 0.4286867588, 0.2860871036, -0.3204688932},

			{-0.2225866383, -0.1392474522, 0.2766746630, -0.4025222726, -0.2998803480},

			{-0.0719653169, -0.0089938415, -0.4787238104, 0.3859540879, -0.2915850162}
		},

		{
			{-0.2902178764, 0.1399972008, -0.1490597206, 0.3235471485, -0.1131976443},

			{-0.3815783320, 0.2452592722, 0.1715883400, 0.0196010401, -0.3720653084},

			{-0.4130285659, -0.1884501099, 0.3026430344, -0.1795923291, -0.2146730365},

			{-0.1602826468, 0.4366462295, -0.1100990564, -0.0847076194, 0.1742965166},

			{0.1468197408, 0.2809369113, -0.1867925717, 0.4640395848, -0.0275031088}
		},

		{
			{-0.1083719678, 0.2063421543, -0.3531756161, -0.3178527728, -0.3582961334},

			{-0.4326267750, -0.0976596361, -0.4012043446, 0.4672622789, 0.1300775518},

			{0.3783932897, -0.2845496811, 0.0193895385, 0.3410756287, 0.4152073022},

			{0.1876010998, -0.1909247087, 0.1054148018, -0.2069503056, -0.4797338195},

			{0.3899894536, 0.1731044428, 0.2076069810, -0.3127776641, 0.2481869444}
		}
	},

	{
		{
			{-0.1119476957, 0.2556042551, 0.3505407177, 0.0364381229, 0.4822176888},

			{0.2884896339, 0.0271184715, -0.0217165394, 0.1930863603, 0.4595403820},

			{-0.2212849571, -0.0436641442, 0.0818136185, 0.2098313773, -0.2513053149},

			{-0.0919855090, -0.4178699767, -0.0937646978, 0.2518625993, -0.2554754417},

			{0.1473899798, 0.2852770013, -0.4070612393, -0.0871478127, -0.0285390817}
		},

		{
			{0.0910816629, -0.3394939789, 0.2390908618, -0.1758373225, 0.0138693762},

			{-0.1156832843, -0.3282651354, 0.0649725838, 0.4200615489, 0.4558352430},

			{-0.2845928938, -0.2463525841, 0.4039747505, -0.2024902205, 0.4004438467},

			{0.4272674529, -0.2603013242, -0.3375866767, 0.3167943859, -0.4982393249},

			{0.3028272624, 0.2497456939, 0.0492153617, -0.1164266437, 0.0013234418}
		},

		{
			{0.1303641595, 0.4708190822, -0.0689888230, 0.3747875344, -0.0895147018},

			{0.2922653227, 0.4524027350, -0.2372987045, 0.3923068739, 0.0777623366},

			{-0.2056297975, 0.4761942367, -0.4661776501, 0.4109297597, 0.0168511065},

			{-0.3380916946, 0.4455870976, 0.3493366798, -0.2569919507, -0.1189069190},

			{-0.2993823471, 0.4002675262, -0.1397213424, -0.3228004080, 0.2750184951}
		}
	},

	{
		{
			{0.1639580000, 0.4230245565, -0.4842972073, 0.2198818490, -0.2064268065},

			{0.4490166778, 0.3058198735, 0.4484536975, 0.2782894295, -0.4894514440},

			{0.1395238813, -0.2813618948, 0.3062969287, -0.1549463140, -0.0356342789},

			{0.3117629164, -0.2683877134, -0.2318934912, 0.3816393828, -0.2271298935},

			{-0.1567380543, 0.3208331708, 0.4132784942, -0.1946087671, -0.3185726075}
		},

		{
			{0.3178414043, 0.3296660519, 0.4824611099, -0.0038657355, 0.1952938037},

			{0.3885368840, 0.3086894572, -0.3443133761, 0.0415561328, -0.3267878492},

			{-0.1787670083, -0.4944468467, 0.2367275916, 0.3504659912, 0.3674782085},

			{0.0239915593, 0.1611129723, 0.1676893956, 0.3926018672, 0.4983455861},

			{0.1128537455, -0.3110121724, 0.3705834789, -0.2691619851, -0.4545715527}
		},

		{
			{0.0135966870, -0.4541751542, 0.4779611694, -0.3047396404, 0.3395787701},

			{0.1839951982, 0.0257328285, 0.2265946100, 0.2716407236, -0.1055748653},

			{-0.3489500079, 0.2994035455, 0.0661113196, -0.3551466576, -0.3624318133},

			{-0.3579779187, -0.1401281047, 0.1762697209, -0.2556320058, -0.1926567412},

			{0.0811208865, -0.0721368154, 0.4246358336, -0.1059533693, 0.4182254604}
		}
	}
};

type_t bias[14] = {-0.4283158300, -0.1401964227, -0.3490765140, -0.2698840117, -0.3728952388, 0.1793080438, 0.2320554185, 0.4896875987, 0.3559389243, 0.4289815414, -0.1773240238, -0.4562830902, 0.2942953474, -0.2788360240};



void explore (type_t input[3][20][20], type_t output[14][20][20]);